{
  "meta": {
    "type": "sklearn_pipeline",
    "steps": [
      "imputer",
      "scaler",
      "lr"
    ],
    "n_features_imputer": 33,
    "n_features_scaler": 30,
    "n_features_lr": 30,
    "always_missing_feature_indices": [
      12,
      15,
      16
    ],
    "roc_computed": true
  },
  "imputer": {
    "strategy": "mean",
    "missing_values": null,
    "statistics_": [
      67.69616666666666,
      64.20149583333334,
      63.90168222222222,
      60.768121111111114,
      54.546470370370365,
      62.12971638888889,
      67.76511500000001,
      51.200973148148144,
      55.12424074074073,
      65.18155212298682,
      64.57698825806452,
      64.96094853556485,
      null,
      62.17215888754535,
      62.330147402597404,
      null,
      null,
      0.5683862962962962,
      1.7127158333333332,
      -1.7166889814814814,
      -4.677607314814814,
      0.6807890740740741,
      6.60931361111111,
      -5.464365277777778,
      -6.3204433333333325,
      -0.4819487962962963,
      0.8498702777777777,
      -0.27361129629629627,
      0.04274740740740737,
      -0.5011483333333333,
      1.3765544444444446,
      1.3765544444444446,
      0.0
    ]
  },
  "scaler": {
    "with_mean": true,
    "with_std": true,
    "mean_": [
      67.69616666666666,
      64.20149583333334,
      63.90168222222222,
      60.768121111111114,
      54.546470370370365,
      62.12971638888889,
      67.76511500000001,
      51.200973148148144,
      55.12424074074073,
      65.18155212298683,
      64.5769882580645,
      64.96094853556485,
      62.17215888754535,
      62.3301474025974,
      0.5683862962962962,
      1.7127158333333332,
      -1.7166889814814814,
      -4.677607314814814,
      0.6807890740740741,
      6.60931361111111,
      -5.464365277777778,
      -6.3204433333333325,
      -0.4819487962962963,
      0.8498702777777777,
      -0.27361129629629627,
      0.04274740740740737,
      -0.5011483333333333,
      1.3765544444444446,
      1.3765544444444446,
      0.0
    ],
    "var_": [
      114.1204686388889,
      325.9892240340105,
      319.312152660184,
      297.63654924414686,
      182.0633423417147,
      280.09768035727774,
      179.18113248420093,
      180.56367400576045,
      211.86113845130316,
      145.07761498637447,
      140.7498529770955,
      111.78919187012404,
      232.82352894152055,
      176.83152762948865,
      133.70099609257147,
      101.79509878194375,
      107.22392450566562,
      61.260610781400196,
      82.21290408788063,
      35.593984221823995,
      46.80922636906289,
      34.91771373504815,
      134.62663791227632,
      75.4860760900888,
      121.33751567553905,
      62.51090568390069,
      18.63150453810833,
      103.20209660188766,
      103.20209660188766,
      0.0
    ],
    "scale_": [
      10.68271822332167,
      18.05517167002326,
      17.869307559616963,
      17.252146221387843,
      13.493084982379482,
      16.736119035107205,
      13.385855687411281,
      13.437398334713475,
      14.555450472290548,
      12.044816934531402,
      11.86380432142639,
      10.573040805280383,
      15.258555925824716,
      13.297801608893428,
      11.562914688458592,
      10.08935571689014,
      10.354898575344214,
      7.826915789849805,
      9.067133179119,
      5.96606941141519,
      6.841726855777194,
      5.9091212320486495,
      11.602871968279075,
      8.688272330566578,
      11.015330938085295,
      7.906383856346761,
      4.316422655175039,
      10.158843270859515,
      10.158843270859515,
      1.0
    ]
  },
  "lr": {
    "C": 1.0,
    "class_weight": "balanced",
    "solver": "lbfgs",
    "max_iter": 1000,
    "random_state": 42,
    "coef_": [
      [
        1.116119661448358,
        -0.5950049854607228,
        -0.0977490726603172,
        -0.42247021758655395,
        -0.16911306656919062,
        -0.568043589302161,
        -0.4693793180495043,
        -0.5258068842381582,
        -0.5088399190420145,
        -0.39445114053771146,
        -0.7048487502063174,
        0.0389658056261951,
        -0.1880976138208172,
        -0.7766358203010448,
        0.23842799534732495,
        -0.2979701667517633,
        0.16682342150150745,
        -0.03419820850413712,
        -0.12233787831112948,
        -0.3353065475575246,
        0.1783804636621183,
        -0.09501536091663319,
        -0.09278164529396093,
        0.4163583590055216,
        -0.2991933909089183,
        -0.13182215976310546,
        0.06791147537904077,
        0.050851687450065686,
        0.050851687450066255,
        0.0
      ]
    ],
    "intercept_": [
      -2.3626160732943986
    ],
    "classes_": [
      0,
      1
    ]
  }
}